{"n_classes": 3, "n_hiden_layers": 1, "hidden": [{"weights": [[-0.7555845379829407, 0.03597753494977951, 0.6032693386077881, -0.5010382533073425, -2.3742892742156982, 0.6755853891372681, 0.7011339068412781, -1.2461289167404175, -0.06778448075056076, 0.24288177490234375, 0.47296082973480225, 0.4301397204399109, 0.7467256188392639], [-0.36563587188720703, 0.057599883526563644, 1.7230587005615234, 0.28586140275001526, -1.593428134918213, 2.0050954818725586, 0.344977468252182, 0.2348455786705017, 0.1017816960811615, 0.41976845264434814, 2.21832537651062, -0.6619864702224731, 0.1458032876253128], [-1.208061933517456, -0.5461730360984802, -0.5183281898498535, 0.48756834864616394, 0.4463233947753906, -0.47564125061035156, 0.6277996301651001, -0.17954280972480774, 0.707181453704834, -0.03646744787693024, 1.0381799936294556, 0.9247117042541504, -1.0344693660736084], [0.6522917747497559, 0.05028942599892616, 0.20219795405864716, -2.105454683303833, 2.009544849395752, 0.7163740992546082, -0.062651626765728, -0.8989948034286499, -1.2345689535140991, -0.24497279524803162, -0.21703507006168365, 1.7350159883499146, -0.18010756373405457], [-0.40119996666908264, -0.5585173964500427, -1.4469976425170898, 0.6869334578514099, 1.0463147163391113, -0.5204644799232483, 0.4629986584186554, 0.18036453425884247, -0.4639110565185547, -0.7158316969871521, -0.20399388670921326, 1.7386696338653564, -1.774620532989502], [1.78433358669281, 0.10217659920454025, -0.292218416929245, 0.21049216389656067, -0.44594377279281616, -0.3288247585296631, 1.1067177057266235, 1.248112678527832, 0.5769106149673462, -0.10326135158538818, -1.4622920751571655, -1.5167810916900635, 0.3596988022327423], [-0.13547436892986298, 1.2340153455734253, -0.18782570958137512, -0.16593502461910248, 0.041105005890131, -0.43449535965919495, 0.15131999552249908, 2.8458831310272217, -0.9616951942443848, -0.8013407588005066, 2.7269349098205566, 0.4616164267063141, -0.7647395133972168], [-0.4095253050327301, 1.0852406024932861, 1.432268738746643, 0.36495688557624817, 0.16060858964920044, 1.6046262979507446, 0.6281716227531433, -0.7578321099281311, -0.22113069891929626, 0.48495689034461975, -0.5709108114242554, -0.5103845000267029, 0.6861928701400757], [-1.6887385845184326, 1.2959743738174438, 1.0729888677597046, 0.211068794131279, 0.4514160752296448, -0.5538930296897888, 1.4992419481277466, 1.4923104047775269, -1.6976494789123535, 0.3718689978122711, -0.7777260541915894, 0.4908645749092102, -0.4550214111804962], [1.2573264837265015, 0.45626020431518555, -1.264019250869751, -0.8388710021972656, -1.8993592262268066, 1.929309606552124, -0.15473569929599762, -0.23851391673088074, 1.0831695795059204, 0.8809939622879028, 0.6943183541297913, 1.594018816947937, 0.36824849247932434], [0.08382005989551544, 0.49832648038864136, 0.9361863136291504, -0.7341462969779968, 2.4552440643310547, -0.1331164836883545, -1.08204185962677, 0.9739701747894287, 0.08121433109045029, -0.18259766697883606, 1.4147628545761108, -0.46831488609313965, 1.5184520483016968], [-0.8456520438194275, -0.1345723420381546, 0.1343868523836136, 0.30774274468421936, 0.49922001361846924, -1.1643385887145996, 1.000847578048706, 0.030847767367959023, 1.2250727415084839, 0.18779484927654266, 0.5622606873512268, -1.688004732131958, 0.8818601965904236], [-0.03166921064257622, 0.10306528210639954, 0.386568158864975, 0.7053817510604858, -1.9685542583465576, -1.4192309379577637, 1.1347018480300903, 0.07119086384773254, 1.266054630279541, 1.3785934448242188, 1.5088601112365723, 1.981512188911438, -0.037819813936948776]], "biases": [-0.5566661953926086, 0.34110233187675476, -0.20329931378364563, -0.6462624073028564, 1.274281620979309, 0.2025500386953354, -0.568474292755127, 1.147762656211853, 1.3379323482513428, -0.13984414935112, -0.1453363597393036, -0.9947952628135681, 1.3923041820526123]}], "output": {"weights": [[-0.9579710364341736, 0.39484480023384094, 1.0558680295944214], [0.31572601199150085, 0.8915187120437622, 1.7031108140945435], [0.49855703115463257, 1.2293767929077148, -0.961747944355011], [-0.2873610556125641, -1.609168291091919, 0.7714658975601196], [-1.8013793230056763, 0.6313287615776062, -0.9706544876098633], [-1.4053822755813599, 1.3015477657318115, 2.012927293777466], [0.8502233028411865, -1.0548818111419678, -0.37185999751091003], [-0.18405510485172272, 1.2380794286727905, -1.7312275171279907], [0.7430227994918823, 0.20340891182422638, 0.0013832647819072008], [-0.22822251915931702, -0.00881650485098362, 1.4213125705718994], [0.9962610602378845, -0.47761157155036926, 0.7313843965530396], [-0.04369742423295975, -0.8521913290023804, 1.6911286115646362], [-0.207590714097023, 0.03028489276766777, 0.6422892212867737]], "biases": [2.2355964183807373, 1.7468769550323486, 0.10339650511741638]}}